svm_type c_svc
kernel_type linear
nr_class 2
total_sv 241
rho 5.0120291803393586
label 1 0
nr_sv 121 120
SV
1 1:38.49699 2:41.466 3:-0.1886419 4:123.9661 
1 1:16.2456 2:48.3062 3:0.5508614 4:26.32639 
1 1:19.6245 2:49.2309 3:0.4302725 4:93.61318 
1 1:20.7173 2:50.1779 3:0.1636157 4:118.7613 
1 1:19.7492 2:45.8642 3:-0.1964635 4:134.1424 
1 1:21.8378 2:17.2425 3:-0.4093676 4:107.8929 
1 1:27.2091 2:46.9291 3:-0.2033886 4:108.4065 
1 1:24.51801 2:42.61099 3:0.2676385 4:108.4697 
1 1:25.44891 2:49.2227 3:0.2052755 4:116.5338 
1 1:21.2079 2:56.9959 3:0.4919596 4:93.19295 
1 1:22.4451 2:37.6895 3:-0.2014975 4:134.3154 
1 1:26.4551 2:38.1431 3:-0.1513146 4:158.1231 
1 1:32.53003 2:42.87 3:-0.1560346 4:110.5351 
0.58694980575680045 1:29.2495 2:46.2495 3:0.2573052 4:152.7013 
1 1:23.2085 2:38.2578 3:0.2055369 4:127.2016 
1 1:23.8772 2:50.7041 3:-0.2748511 4:97.20027 
1 1:19.8338 2:61.888 3:0.342671 4:79.74548 
1 1:22.181 2:51.453 3:0.1593816 4:94.54704 
1 1:126.453 2:8.522003 3:0.3624534 4:165.583 
1 1:21.9116 2:28.7592 3:-0.1198398 4:121.1151 
1 1:31.19397 2:56.98401 3:0.05549404 4:97.49416 
1 1:22.416 2:51.8446 3:0.1481098 4:118.6542 
1 1:19.23199 2:51.043 3:0.4913905 4:91.70428 
1 1:20.6591 2:40.1293 3:0.2817537 4:101.6223 
1 1:21.0356 2:39.7326 3:0.3944905 4:111.6997 
1 1:21.643 2:31.07 3:0.6301231 4:160.5979 
1 1:25.4552 2:30.8162 3:0.209136 4:95.25842 
1 1:21.12 2:50.954 3:0.2488138 4:113.268 
1 1:23.904 2:35.174 3:-0.199371 4:107.7693 
1 1:27.396 2:48.5871 3:-0.1759749 4:107.6731 
1 1:20.97101 2:48.12 3:0.2111316 4:124.8478 
1 1:16.2825 2:61.4856 3:0.3145723 4:32.69581 
1 1:16.6815 2:43.877 3:-0.1423949 4:38.7631 
1 1:22.9708 2:49.5455 3:-0.2733093 4:114.6743 
0.058017395882026611 1:23.105 2:54.4047 3:-0.3031989 4:105.322 
1 1:46.85999 2:43.18994 3:-0.1247203 4:107.967 
1 1:19.784 2:35.068 3:0.2976086 4:151.6411 
1 1:24.1321 2:14.2132 3:0.2080286 4:129.0474 
1 1:18.9148 2:44.3015 3:0.4090978 4:145.1069 
1 1:16.8425 2:57.3256 3:0.4408547 4:45.32204 
1 1:19.8934 2:66.81 3:0.6915999 4:88.82582 
1 1:20.23999 2:34.38 3:0.08369496 4:79.01762 
1 1:23.1825 2:52.06091 3:0.2709614 4:96.4889 
1 1:24.62101 2:45.91801 3:0.1585492 4:136.3589 
1 1:37.1825 2:37.09451 3:0.3805078 4:178.2065 
1 1:21.2117 2:17.6556 3:0.1813899 4:144.7828 
1 1:20.08701 2:50.79599 3:0.258852 4:131.0057 
1 1:22.4544 2:43.6843 3:-0.1938154 4:114.8748 
1 1:20.4245 2:30.2525 3:-0.08889898 4:101.7899 
1 1:19.6087 2:45.3507 3:0.2536992 4:84.10986 
1 1:28.5169 2:23.0529 3:0.2318703 4:104.5173 
1 1:30.01001 2:51.63 3:-0.06008602 4:98.14236 
1 1:25.47998 2:20.34998 3:0.1000151 4:94.10483 
1 1:22.9972 2:33.5553 3:0.2461369 4:110.7246 
1 1:20.2417 2:56.6614 3:0.2882226 4:97.59304 
1 1:26.97 2:48.4861 3:0.2148416 4:113.6745 
1 1:16.3642 2:58.5712 3:0.3391393 4:32.40192 
1 1:21.8821 2:53.5227 3:-0.2914536 4:103.4653 
1 1:30.977 2:36.67 3:0.1026099 4:137.257 
1 1:57.4885 2:51.5174 3:0.3611673 4:72.92012 
1 1:22.1615 2:43.2918 3:0.3643137 4:122.2083 
1 1:27.5134 2:47.7821 3:-0.1380502 4:117.0996 
1 1:32.8158 2:44.7278 3:-0.241382 4:124.2573 
1 1:16.5798 2:46.7507 3:0.4269851 4:108.412 
1 1:17.0363 2:60.9623 3:0.2417745 4:87.29321 
1 1:21.2914 2:39.9268 3:0.1462396 4:114.8666 
1 1:26.4346 2:51.6626 3:-0.2112551 4:104.4733 
1 1:20.035 2:54.01801 3:0.439217 4:92.46784 
1 1:19.3139 2:38.5414 3:0.2488351 4:74.09567 
1 1:24.3655 2:45.9655 3:0.2567794 4:112.466 
1 1:23.7308 2:53.6121 3:0.305395 4:94.75029 
1 1:19.4246 2:35.9836 3:0.3697 4:157.4008 
1 1:21.3402 2:37.4932 3:-0.1022603 4:116.932 
1 1:17.2788 2:57.273 3:0.4406188 4:84.5658 
1 1:21.53989 2:46.5042 3:0.1363833 4:124.0018 
1 1:25.66 2:47.446 3:0.3460585 4:97.18379 
1 1:24.9772 2:38.7218 3:-0.3870817 4:138.5974 
1 1:19.66219 2:54.5321 3:0.3618242 4:118.6239 
1 1:21.2519 2:52.4504 3:0.1424833 4:105.9071 
1 1:25.6265 2:42.6395 3:0.2753488 4:158.6972 
1 1:21.4372 2:49.79321 3:0.1603489 4:114.0261 
1 1:17.2281 2:52.0249 3:0.2610148 4:53.96567 
1 1:30.9777 2:43.50529 3:-0.267287 4:135.1147 
1 1:21.1013 2:34.7748 3:0.2233496 4:64.44129 
1 1:25.048 2:47.854 3:0.3641378 4:151.7125 
1 1:26.8104 2:52.35841 3:0.1569905 4:122.3017 
1 1:17.3071 2:56.2204 3:0.2152567 4:81.78073 
1 1:30.0655 2:46.2135 3:-0.1930502 4:125.051 
1 1:23.14001 2:16.23999 3:0.2634046 4:90.30076 
1 1:22.0125 2:54.2841 3:0.5252262 4:91.66582 
1 1:24.63449 2:50.1217 3:0.07716985 4:117.2808 
1 1:24.7632 2:35.4125 3:0.1364321 4:113.8503 
0.35288252904176709 1:77.0559 2:33.6459 3:0.2976705 4:148.098 
1 1:19.3769 2:56.2636 3:0.4267806 4:128.2069 
1 1:24.15299 2:42.96099 3:-0.1523811 4:99.71343 
1 1:24.5203 2:43.8942 3:-0.1627115 4:99.42779 
1 1:25.0573 2:45.5743 3:0.3196665 4:125.062 
1 1:24.59801 2:32.93901 3:0.3359633 4:109.3898 
1 1:20.9576 2:51.8426 3:0.332397 4:85.95834 
1 1:20.021 2:59.005 3:0.2738592 4:91.6878 
1 1:25.747 2:42.25 3:0.2012815 4:170.0188 
1 1:23.4493 2:53.0244 3:0.2872114 4:94.28611 
1 1:28.12399 2:55.599 3:0.2310282 4:107.0332 
1 1:24.258 2:49.742 3:-0.1727067 4:99.7409 
1 1:30.90401 2:41.067 3:-0.1821786 4:130.8272 
1 1:65.1097 2:34.2087 3:0.1393513 4:103.3912 
1 1:19.8223 2:52.8472 3:0.3061185 4:92.70405 
1 1:18.9327 2:48.6392 3:0.1949267 4:96.94209 
1 1:19.7381 2:50.0896 3:-0.398081 4:98.08743 
1 1:23.01001 2:21.23999 3:0.1409905 4:85.57656 
1 1:34.6001 2:40.83008 3:0.09972262 4:109.1234 
1 1:21.2416 2:43.1905 3:0.22739 4:128.9348 
1 1:23.9721 2:43.7253 3:-0.4147862 4:99.41405 
1 1:23.6584 2:52.9624 3:0.1494898 4:108.9119 
1 1:22.0868 2:61.88079 3:0.3905665 4:93.30831 
1 1:21.7693 2:43.0215 3:0.2387209 4:103.8773 
1 1:28.3727 2:19.481 3:0.1466901 4:146.5489 
1 1:19.2789 2:46.3561 3:0.118885 4:113.1884 
1 1:35.96997 2:40.84998 3:-0.1405647 4:109.7029 
1 1:22.1766 2:46.5848 3:-0.3041192 4:119.1733 
1 1:24.475 2:39.5072 3:-0.176098 4:134.9938 
-1 1:17.9476 2:34.3916 3:0.6074293 4:153.5747 
-1 1:18.20799 2:40.19299 3:0.5212566 4:124.6281 
-1 1:16.103 2:33.821 3:0.2991907 4:141.3028 
-1 1:17.79501 2:32.36301 3:0.536576 4:148.9384 
-1 1:20.011 2:30.1346 3:0.1718116 4:120.2829 
-1 1:19.7101 2:48.75809 3:0.3571495 4:90.11398 
-1 1:16.5484 2:85.7265 3:0.4062679 4:36.90364 
-1 1:16.3459 2:61.59891 3:0.1828385 4:30.39139 
-1 1:19.684 2:38.19201 3:-0.3694614 4:81.8494 
-1 1:19.0096 2:53.7716 3:0.4328756 4:146.7356 
-1 1:27.57899 2:28.44499 3:0.2959444 4:125.9052 
-1 1:21.632 2:28.911 3:-0.3780733 4:87.63653 
-1 1:14.0126 2:46.6335 3:-0.3176231 4:143.6896 
-1 1:17.5135 2:52.6762 3:-0.2093726 4:56.78096 
-1 1:15.9496 2:30.7876 3:0.2371969 4:118.3026 
-1 1:70.0734 2:15.9625 3:0.1508054 4:154.3767 
-1 1:19.6615 2:51.4478 3:0.2898756 4:110.5214 
-1 1:19.72169 2:45.8312 3:0.1038377 4:106.2943 
-1 1:16.5392 2:42.0842 3:0.3787301 4:134.3236 
-1 1:16.942 2:38.0708 3:-0.331574 4:144.228 
-0.042635993989737546 1:20.3626 2:30.089 3:-0.1604707 4:91.49828 
-1 1:16.944 2:58.91 3:-0.277317 4:46.27787 
-1 1:16.5274 2:31.1534 3:0.4209346 4:127.4983 
-1 1:18.05101 2:55.644 3:-0.146244 4:61.71939 
-1 1:18.7671 2:31.9048 3:0.1814989 4:101.6004 
-1 1:80.0095 2:22.03851 3:0.1849896 4:133.2579 
-1 1:11.87901 2:43.135 3:0.3143309 4:83.36279 
-1 1:18.27821 2:34.83321 3:-0.2309685 4:81.07484 
-1 1:40.7775 2:21.9806 3:0.385883 4:145.7606 
-1 1:19.4542 2:21.6693 3:0.1339476 4:144.7416 
-1 1:19.5326 2:41.1086 3:0.223938 4:82.61021 
-1 1:48.79279 2:39.8308 3:0.2945141 4:132.7004 
-1 1:22.30499 2:43.472 3:-0.3400311 4:144.0247 
-1 1:19.6507 2:41.0966 3:-0.1251785 4:64.50996 
-1 1:17.0239 2:37.9991 3:0.2954201 4:136.4166 
-1 1:19.571 2:27.709 3:0.5949918 4:156.2719 
-1 1:17.758 2:51.75101 3:-0.1421856 4:59.57977 
-1 1:21.4 2:32.26099 3:0.2806046 4:115.8581 
-1 1:21.4731 2:54.0531 3:-0.3996676 4:74.44175 
-1 1:16.646 2:43.836 3:-0.2041106 4:40.23255 
-1 1:17.8147 2:52.96719 3:0.1401848 4:59.50011 
-1 1:22.895 2:38.759 3:0.5813479 4:150.8006 
-1 1:8.057999 2:36.47899 3:0.355673 4:124.4028 
-1 1:121.2069 2:17.84589 3:0.285668 4:143.0909 
-1 1:18.1992 2:59.63709 3:-0.2822619 4:85.17281 
-1 1:23.921 2:47.51499 3:-0.2680286 4:113.1279 
-1 1:12.64299 2:36.756 3:-0.07893489 4:79.4049 
-1 1:17.4859 2:107.3864 3:-0.1426608 4:72.01648 
-1 1:20.8385 2:32.4955 3:0.3120208 4:138.2678 
-1 1:20.6958 2:57.2178 3:0.4222982 4:134.3044 
-1 1:8.807701 2:33.1637 3:0.4623536 4:133.3541 
-1 1:20.8093 2:28.5335 3:0.4821053 4:126.3392 
-1 1:26.464 2:52.83401 3:0.3919428 4:162.9737 
-1 1:18.2705 2:51.1633 3:-0.2987731 4:87.17235 
-1 1:17.33801 2:57.928 3:0.4333156 4:107.9313 
-1 1:16.2154 2:28.9184 3:0.5319095 4:156.7004 
-1 1:17.2865 2:15.8871 3:-0.5834227 4:171.035 
-1 1:18.1155 2:38.2968 3:-0.2085503 4:106.5772 
-1 1:82.3094 2:27.175 3:0.4243166 4:133.5052 
-1 1:25.773 2:29.936 3:-0.1221477 4:114.5946 
-1 1:22.336 2:29.59601 3:0.5024841 4:169.387 
-1 1:16.555 2:47.952 3:-0.4179417 4:40.54841 
-1 1:25.22499 2:56.774 3:-0.1661502 4:137.864 
-1 1:101.4441 2:22.3731 3:0.4719404 4:143.6924 
-1 1:17.9642 2:45.5541 3:0.1346832 4:61.56283 
-1 1:0 2:70.4193 3:0.1754764 4:78.19913 
-1 1:19.564 2:34.77901 3:0.5524999 4:152.9155 
-1 1:55.4281 2:11.9925 3:0.2404927 4:160.2106 
-1 1:15.35101 2:48.16 3:-0.2269138 4:98.55985 
-1 1:15.659 2:42.54601 3:0.4408102 4:150.3749 
-1 1:18.0171 2:89.16949 3:-0.1859998 4:136.6528 
-1 1:17.56999 2:47.866 3:0.1911493 4:56.47059 
-1 1:20.788 2:51.809 3:0.5923293 4:139.3197 
-1 1:16.625 2:76.01199 3:-0.2776534 4:40.72694 
-1 1:19.755 2:54.09 3:0.2982536 4:94.35752 
-1 1:92.90001 2:25.26701 3:-0.1545219 4:138.8528 
-1 1:19.062 2:40.673 3:-0.2600282 4:112.2875 
-1 1:16.54202 2:60.5 3:-0.2860273 4:36.607 
-1 1:22.008 2:86.56802 3:0.3911465 4:161.5784 
-0.955213736690815 1:108.0954 2:22.4914 3:0.2071452 4:33.04738 
-1 1:16.10699 2:63.43799 3:0.21759 4:16.84505 
-1 1:15.16602 2:104.359 3:0.2502066 4:28.6775 
-1 1:17.141 2:34.37 3:0.3819362 4:161.0813 
-1 1:24.84802 2:61.181 3:0.3051516 4:145.7908 
-1 1:18.60201 2:59.93201 3:-0.126886 4:62.62852 
-1 1:17.3626 2:31.8656 3:-0.1980419 4:106.3905 
-1 1:18.16299 2:76.79102 3:-0.1680544 4:62.7686 
-1 1:19.349 2:25.196 3:0.4730794 4:156.8597 
-1 1:21.144 2:31.858 3:-0.2069266 4:122.818 
-1 1:21.61299 2:35.12 3:0.2806968 4:129.0199 
-1 1:67.2347 2:14.9386 3:0.5795508 4:133.7853 
-1 1:16.7915 2:39.6494 3:0.2733345 4:125.4191 
-1 1:88.3289 2:39.8009 3:0.3072247 4:50.20554 
-1 1:18.0006 2:40.2757 3:0.5172697 4:155.3793 
-1 1:20.14301 2:48.15802 3:0.3486851 4:104.6683 
-1 1:22.16199 2:28.916 3:-0.1406486 4:112.7022 
-1 1:16.631 2:32.5699 3:0.2088316 4:146.7301 
-1 1:17.2992 2:37.6375 3:0.2004168 4:133.7716 
-1 1:18.25 2:91.73001 3:0.2085369 4:69.86588 
-1 1:19.1888 2:22.5139 3:-0.3708769 4:148.3671 
-1 1:19.222 2:62.006 3:0.1656219 4:142.5635 
-1 1:109.612 2:34.532 3:0.1949741 4:146.4088 
-1 1:18.7602 2:28.883 3:0.1985557 4:131.3326 
-1 1:16.3647 2:54.02789 3:0.1349166 4:44.45686 
-1 1:17.552 2:57.38 3:0.2356248 4:57.96201 
-1 1:22.71698 2:34.04498 3:0.5442541 4:133.203 
-1 1:18.205 2:39.358 3:0.4379394 4:145.236 
-1 1:17.58301 2:78.16901 3:0.1604002 4:56.94301 
-1 1:20.04221 2:42.90791 3:-0.2342174 4:74.7686 
-1 1:19.6694 2:47.07339 3:0.3214468 4:85.71664 
-1 1:17.4846 2:27.6116 3:0.2147734 4:132.7141 
-1 1:109.1312 2:20.8441 3:-0.2770596 4:41.99863 
-1 1:2.787994 2:53.66299 3:0.2997298 4:131.3106 
-1 1:1.122009 2:125.572 3:-0.1774967 4:54.75395 
-1 1:4.215996 2:39.106 3:0.3487943 4:137.1801 
-1 1:2.219009 2:49.56801 3:0.3635402 4:134.0325 
-1 1:0.8200073 2:42.67 3:0.4869577 4:94.33555 
-1 1:10.42401 2:39.60101 3:0.2243978 4:106.9865 
-1 1:1.1633 2:57.8244 3:0.3045251 4:131.8187 
-1 1:14.39201 2:33.4955 3:-0.2600677 4:92.62165 
