svm_type c_svc
kernel_type linear
nr_class 2
total_sv 385
rho -10.008118305859762
label 1 0
nr_sv 193 192
SV
1 1:-0.740805 2:-0.842831 3:-0.258126 4:0.377548 
1 1:-0.838324 2:-0.724825 3:0.41899 4:0.0991941 
1 1:-0.89062 2:-0.819471 3:0.798843 4:-0.707453 
1 1:-0.867871 2:-0.816313 3:0.626486 4:0.0402574 
1 1:-0.860513 2:-0.813079 3:0.245354 4:0.319711 
1 1:-0.861462 2:-0.761569 3:0.47419 4:0.268588 
1 1:-0.867031 2:-0.827811 3:-0.269305 4:0.49063 
1 1:-0.852969 2:-0.925558 3:-0.573608 4:0.198938 
1 1:-0.854112 2:-0.741248 3:0.338351 4:0.161305 
1 1:-0.816805 2:-0.824174 3:-0.279203 4:0.204645 
1 1:-0.819897 2:-0.780529 3:0.31429 4:0.369246 
1 1:-0.834923 2:-0.838921 3:0.394034 4:0.205347 
1 1:-0.847051 2:-0.774683 3:-0.193053 4:0.272738 
1 1:-0.828656 2:-0.816341 3:0.304899 4:0.294958 
1 1:-0.85721 2:-0.789795 3:0.714655 4:0.0355877 
1 1:-0.84888 2:-0.855729 3:-0.2765 4:0.492553 
1 1:-0.83456 2:-0.777394 3:-0.358874 4:0.199303 
1 1:-0.821881 2:-0.85418 3:-0.204774 4:0.757111 
1 1:-0.780979 2:-0.838036 3:-0.21152 4:0.228299 
1 1:-0.866236 2:-0.772201 3:0.315456 4:0.281589 
1 1:-0.803067 2:-0.826495 3:0.379264 4:0.696862 
1 1:-0.84374 2:-0.853788 3:0.305272 4:0.413502 
1 1:-0.839238 2:-0.811282 3:-0.381344 4:0.0801182 
1 1:-0.864838 2:-0.767225 3:0.206664 4:0.212032 
1 1:-0.857021 2:-0.718158 3:0.20378 4:-0.0596998 
1 1:-0.864593 2:-0.794158 3:-0.357667 4:0.193169 
1 1:-0.866462 2:-0.773087 3:0.501277 4:-0.113845 
1 1:-0.850658 2:-0.808724 3:0.239303 4:0.0506347 
1 1:-0.73739 2:-0.801384 3:-0.203634 4:0.268099 
1 1:-0.86073 2:-0.754758 3:0.496211 4:0.0578377 
1 1:-0.148608 2:-0.95534 3:0.529552 4:0.840007 
1 1:-0.852472 2:-0.886227 3:-0.159787 4:0.345867 
1 1:-0.789975 2:-0.789835 3:0.0908166 4:0.083384 
1 1:-0.810968 2:-0.795824 3:0.436959 4:0.575235 
1 1:-0.849076 2:-0.807387 3:0.223192 4:0.318521 
1 1:-0.870513 2:-0.810125 3:0.713842 4:0.0190451 
1 1:-0.860905 2:-0.847396 3:0.414209 4:0.129257 
1 1:-0.85837 2:-0.848751 3:0.575343 4:0.24124 
1 1:-0.85428 2:-0.878335 3:0.912131 4:0.784611 
1 1:-0.828613 2:-0.879202 3:0.310416 4:0.0585398 
1 1:-0.857802 2:-0.810429 3:0.367128 4:0.258668 
1 1:-0.839057 2:-0.864319 3:-0.273461 4:0.197564 
1 1:-0.815546 2:-0.818512 3:-0.240021 4:0.196495 
1 1:-0.88859 2:-0.747054 3:-0.415827 4:-0.011232 
1 1:-0.858805 2:-0.820107 3:0.313269 4:0.387346 
1 1:-0.890372 2:-0.774462 3:0.461116 4:-0.636674 
1 1:-0.872695 2:-0.710051 3:0.275483 4:-0.301703 
1 1:-0.844464 2:-0.778395 3:0.35136 4:0.419271 
1 1:-0.887686 2:-0.834597 3:-0.192025 4:-0.569253 
1 1:-0.845341 2:-0.815239 3:-0.379141 4:0.274295 
1 1:-0.863849 2:-0.752225 3:-0.278629 4:0.0484066 
1 1:-0.844437 2:-0.798644 3:-0.421862 4:0.170369 
1 1:-0.856508 2:-0.765738 3:0.414298 4:0.262788 
1 1:-0.684498 2:-0.836944 3:-0.166763 4:0.199761 
1 1:-0.866797 2:-0.864681 3:0.43687 4:0.685081 
1 1:-0.870253 2:-0.736456 3:0.577627 4:-0.0176414 
1 1:-0.857672 2:-0.783823 3:-0.219275 4:0.288243 
1 1:-0.837522 2:-0.935903 3:0.308834 4:0.434013 
1 1:-0.872649 2:-0.833148 3:0.596221 4:0.612471 
1 1:-0.886602 2:-0.788669 3:0.641611 4:-0.496368 
1 1:-0.86606 2:-0.756278 3:1 4:-0.0129412 
1 1:-0.863727 2:-0.867031 3:0.131124 4:-0.121933 
1 1:-0.843915 2:-0.806648 3:0.398783 4:0.0722133 
1 1:-0.83423 2:-0.827627 3:0.238113 4:0.515261 
1 1:-0.749655 2:-0.857761 3:0.555357 4:0.980283 
1 1:-0.857184 2:-0.924147 3:0.270759 4:0.608869 
1 1:-0.864757 2:-0.810968 3:0.381475 4:0.455774 
1 1:-0.848817 2:-0.835256 3:-0.26552 4:0.276523 
1 1:-0.862484 2:-0.881127 3:-0.115564 4:0.13112 
1 1:-0.867977 2:-0.829565 3:0.37411 4:-0.0653463 
1 1:-0.839865 2:-0.756811 3:0.271953 4:0.0881758 
1 1:-0.807999 2:-0.905715 3:0.34291 4:0.161427 
1 1:-0.797946 2:-0.80812 3:-0.0743814 4:0.090587 
1 1:-0.802505 2:-0.777332 3:0.288001 4:0.373885 
1 1:-0.828447 2:-0.914945 3:0.15445 4:0.0457208 
1 1:-0.845163 2:-0.869847 3:0.363302 4:0.230405 
1 1:-0.874427 2:-0.722455 3:0.398718 4:0.136797 
1 1:-0.863715 2:-0.790937 3:0.423455 4:0.0844828 
1 1:-0.818414 2:-0.818857 3:0.318571 4:0.263185 
1 1:-0.889822 2:-0.784415 3:0.49623 4:-0.63994 
1 1:-0.848653 2:-0.77556 3:-0.109089 4:0.187828 
1 1:-0.878505 2:-0.749735 3:0.623022 4:0.355177 
1 1:-0.852671 2:-0.801656 3:-0.405074 4:0.149737 
1 1:-0.791436 2:-0.85921 3:0.158159 4:0.52524 
1 1:-0.612937 2:-0.808504 3:0.527714 4:-0.18969 
1 1:-0.894503 2:-0.64808 3:0.60083 4:-0.687157 
1 1:-0.85342 2:-0.779998 3:0.114154 4:0.436424 
1 1:-0.850789 2:-0.836596 3:0.532211 4:0.358015 
1 1:-0.845824 2:-0.760274 3:-0.473252 4:-0.0284155 
0.4106215962115134 1:-0.564908 2:-0.793636 3:0.478867 4:0.29798 
1 1:-0.814756 2:-0.821261 3:-0.185815 4:0.301245 
1 1:-0.779055 2:-0.831692 3:-0.333507 4:0.380784 
1 1:-0.88837 2:-0.824783 3:0.621787 4:0.204706 
1 1:-0.885297 2:-0.776249 3:0.357067 4:-0.029972 
1 1:-0.85626 2:-0.743898 3:0.475807 4:-0.0269504 
1 1:-0.850338 2:-0.738673 3:0.392791 4:0.0300328 
1 1:-0.876074 2:-0.740494 3:0.669219 4:0.334758 
1 1:-0.856648 2:-0.848088 3:0.220519 4:0.276432 
1 1:-0.822019 2:-0.808009 3:-0.290447 4:0.160938 
1 1:-0.865107 2:-0.799965 3:0.63927 4:0.02753 
1 1:-0.869962 2:-0.852819 3:0.367158 4:-0.176627 
1 1:-0.854478 2:-0.788777 3:0.218679 4:0.312386 
1 1:-0.83595 2:-0.827465 3:0.378513 4:0.249756 
1 1:-0.886046 2:-0.73316 3:0.345178 4:-0.301551 
1 1:-0.840224 2:-0.801351 3:0.447999 4:0.0528933 
1 1:-0.869217 2:-0.861554 3:0.53991 4:0.749084 
1 1:-0.856319 2:-0.856399 3:-0.134661 4:0.299383 
1 1:-0.877804 2:-0.751575 3:0.29102 4:-0.080088 
1 1:-0.840757 2:-0.8029 3:-0.21013 4:0.363661 
1 1:-0.842406 2:-0.76239 3:0.333085 4:0.302343 
1 1:-0.883664 2:-0.788848 3:0.641274 4:-0.0602798 
1 1:-0.854975 2:-0.825625 3:0.206431 4:0.377945 
1 1:-0.864679 2:-0.729836 3:0.37242 4:0.0275606 
1 1:-0.852584 2:-0.781072 3:0.207322 4:0.296423 
1 1:-0.848613 2:-0.801823 3:0.352814 4:0.618819 
1 1:-0.869032 2:-0.754625 3:0.245546 4:0.196313 
1 1:-0.882989 2:-0.786885 3:0.482562 4:0.441033 
1 1:-0.851688 2:-0.772411 3:-0.249585 4:0.0879623 
1 1:-0.827234 2:-0.822409 3:0.506119 4:0.0799351 
1 1:-0.831832 2:-0.852203 3:-0.541755 4:0.540135 
1 1:-0.820395 2:-0.780164 3:0.271738 4:0.271883 
1 1:-0.867617 2:-0.798209 3:0.528653 4:0.318184 
1 1:-0.856914 2:-0.805318 3:0.21515 4:0.176871 
1 1:-0.887504 2:-0.705179 3:0.349718 4:-0.479887 
1 1:-0.82746 2:-0.838824 3:0.405054 4:0.76349 
1 1:-0.834697 2:-0.778126 3:0.232864 4:0.360823 
1 1:-0.855666 2:-0.814393 3:0.240685 4:0.267092 
1 1:-0.837689 2:-0.728665 3:0.445647 4:0.119399 
1 1:-0.884005 2:-0.806771 3:0.384567 4:-0.400317 
1 1:-0.791431 2:-0.835867 3:-0.370533 4:0.501435 
1 1:-0.797091 2:-0.80393 3:-0.22008 4:0.325967 
1 1:-0.857928 2:-0.865683 3:0.330732 4:-0.283909 
1 1:-0.831355 2:-0.821015 3:0.53196 4:0.685874 
1 1:-0.819489 2:-0.805632 3:0.235885 4:0.359053 
1 1:-0.883473 2:-0.792443 3:0.319165 4:-0.0912283 
1 1:-0.85561 2:-0.797702 3:0.440822 4:0.688713 
1 1:-0.823217 2:-0.790857 3:0.199101 4:0.383103 
1 1:-0.797573 2:-0.826618 3:-0.264427 4:0.389604 
1 1:-0.844007 2:-0.795242 3:0.445135 4:0.422415 
1 1:-0.844201 2:-0.928982 3:0.387982 4:0.00344881 
1 1:-0.851793 2:-0.799056 3:0.762203 4:0.0186178 
1 1:-0.834139 2:-0.813271 3:0.121798 4:0.303259 
1 1:-0.833273 2:-0.863505 3:0.206501 4:0.265138 
1 1:-0.481192 2:-0.869538 3:0.436958 4:0.645709 
1 1:-0.847752 2:-0.756169 3:0.159873 4:0.23596 
0.021964210878480207 1:-0.859888 2:-0.749494 3:-0.529309 4:-0.0160848 
1 1:-0.869538 2:-0.792296 3:0.621495 4:0.424673 
1 1:-0.837381 2:-0.837726 3:-0.206298 4:0.108045 
1 1:-0.834493 2:-0.784423 3:-0.475674 4:0.0284151 
1 1:-0.838577 2:-0.772621 3:0.154516 4:0.372269 
1 1:-0.835853 2:-0.766876 3:0.45534 4:0.0344583 
1 1:-0.834908 2:-0.834539 3:-0.221064 4:0.104871 
1 1:-0.878013 2:-0.782773 3:-0.240628 4:0.125839 
1 1:-1 2:-0.731859 3:0.551064 4:0.0696495 
1 1:-0.831292 2:-0.828801 3:0.468397 4:0.389726 
1 1:-0.889847 2:-0.636297 3:0.565552 4:-0.655628 
1 1:-0.834385 2:-0.871952 3:0.49169 4:0.215572 
1 1:-0.858895 2:-0.807394 3:0.486593 4:-0.0448054 
1 1:-0.865201 2:-0.782933 3:0.402925 4:0.018862 
1 1:-0.826649 2:-0.840154 3:0.29919 4:0.889299 
1 1:-0.841661 2:-0.742504 3:0.345284 4:0.207025 
1 1:-0.838297 2:-0.771551 3:0.346414 4:0.244903 
1 1:-0.842119 2:-0.803358 3:0.422009 4:0.0477352 
1 1:-0.810645 2:-0.794565 3:0.341707 4:0.189385 
1 1:-0.871014 2:-0.750482 3:0.325695 4:-0.109236 
1 1:-0.836674 2:-0.814568 3:-0.23535 4:0.10835 
1 1:-0.823379 2:-0.765883 3:0.349568 4:0.0992246 
1 1:-0.791927 2:-0.844194 3:-0.248888 4:0.453791 
1 1:-0.561625 2:-0.867616 3:0.210673 4:0.148914 
1 1:-0.866539 2:-0.803963 3:0.449033 4:0.0301549 
1 1:-0.872529 2:-0.818334 3:0.290107 4:0.0772492 
1 1:-0.867106 2:-0.813381 3:-0.557476 4:0.0899766 
1 1:-0.845077 2:-0.911906 3:0.213016 4:-0.0490479 
1 1:-0.767042 2:-0.845003 3:0.154032 4:0.212612 
1 1:-0.856983 2:-0.836942 3:0.336507 4:0.432762 
1 1:-0.838599 2:-0.835116 3:-0.581353 4:0.104718 
1 1:-0.840711 2:-0.80357 3:0.225164 4:0.210261 
1 1:-0.877346 2:-0.754347 3:0.573823 4:0.246734 
1 1:-0.858462 2:-0.813659 3:0.560597 4:0.777468 
1 1:-0.851292 2:-0.773112 3:0.569734 4:0.0368696 
1 1:-0.867787 2:-0.770229 3:0.208165 4:0.133195 
1 1:-0.85343 2:-0.837519 3:0.352702 4:0.154315 
1 1:-0.676351 2:-0.802793 3:0.319321 4:0.359296 
1 1:-0.834126 2:-0.771921 3:0.324203 4:0.123794 
1 1:-0.80897 2:-0.917913 3:0.221163 4:0.628495 
1 1:-0.870198 2:-0.826131 3:0.181421 4:0.257783 
1 1:-0.849711 2:-0.795191 3:-0.219018 4:0.338054 
1 1:-0.869231 2:-0.772981 3:0.221298 4:0.227322 
1 1:-0.757819 2:-0.844935 3:-0.189409 4:0.219051 
1 1:-0.871737 2:-0.744368 3:0.342052 4:0.161824 
1 1:-0.850688 2:-0.82535 3:-0.423177 4:0.324289 
1 1:-0.873771 2:-0.775473 3:-0.536786 4:-0.0516422 
1 1:-0.835213 2:-0.849521 3:-0.240197 4:0.500091 
-1 1:-0.879161 2:-0.866991 3:0.879695 4:0.706568 
-1 1:-0.877408 2:-0.847179 3:0.756529 4:0.384904 
-1 1:-0.891581 2:-0.86894 3:0.439131 4:0.570199 
-1 1:-0.868975 2:-0.916452 3:0.488682 4:0.157917 
-1 1:-0.880188 2:-0.873919 3:0.778425 4:0.655048 
-1 1:-0.865268 2:-0.88153 3:0.257069 4:0.336619 
-1 1:-0.867294 2:-0.817928 3:0.521971 4:0.00137326 
-1 1:-0.930133 2:-0.899533 3:0.260082 4:0.250732 
-1 1:-0.870319 2:-0.871355 3:0.443457 4:-0.15984 
-1 1:-0.888582 2:-0.691676 3:0.592176 4:-0.589916 
-1 1:-0.889945 2:-0.774075 3:0.27283 4:-0.662282 
-1 1:-0.86747 2:-0.854012 3:-0.51657 4:-0.0904652 
-1 1:-0.872011 2:-0.800806 3:0.630206 4:0.630569 
-1 1:-0.814314 2:-0.8873 3:0.434491 4:0.399096 
-1 1:-0.854354 2:-0.885708 3:-0.528879 4:-0.0261569 
-1 1:-0.905655 2:-0.825184 3:-0.442478 4:0.596721 
-1 1:-0.882084 2:-0.804547 3:-0.287756 4:-0.369033 
-1 1:-0.892613 2:-0.8793 3:0.350524 4:0.314614 
-1 1:-0.528205 2:-0.929929 3:0.227045 4:0.71548 
-1 1:-0.883213 2:-0.929283 3:0.383231 4:0.564919 
-1 1:-0.867622 2:-0.808742 3:0.425817 4:0.228147 
-1 1:-0.867216 2:-0.827924 3:0.159914 4:0.181174 
-1 1:-0.888644 2:-0.84072 3:0.552817 4:0.492644 
-1 1:-0.885932 2:-0.854426 3:-0.462418 4:0.602704 
-1 1:-0.862901 2:-0.881685 3:-0.217861 4:0.016756 
-1 1:-0.885918 2:-0.783258 3:-0.384869 4:-0.485747 
-1 1:-0.888723 2:-0.87805 3:0.613139 4:0.416799 
-1 1:-0.878465 2:-0.794412 3:-0.197527 4:-0.314156 
-1 1:-0.873643 2:-0.875484 3:0.270915 4:0.129014 
-1 1:-0.461306 2:-0.909179 3:0.275904 4:0.480801 
-1 1:-0.878115 2:-0.931273 3:0.53748 4:0.443199 
-1 1:-0.92002 2:-0.837131 3:0.460771 4:-0.073648 
-1 1:-0.876935 2:-0.865483 3:-0.318623 4:-0.0990723 
-1 1:-0.899358 2:-0.894663 3:0.655637 4:0.488829 
-1 1:-0.72545 2:-0.909377 3:0.56304 4:0.619735 
-1 1:-0.877421 2:-0.892539 3:0.258187 4:-0.019839 
-1 1:-0.885342 2:-0.869401 3:-0.246896 4:-0.432365 
-1 1:-0.880278 2:-0.957602 3:0.781388 4:0.874465 
-1 1:-0.85995 2:-0.906247 3:0.898802 4:0.537327 
-1 1:-0.859748 2:-0.932899 3:0.65494 4:0.548834 
-1 1:-0.876545 2:-0.905615 3:0.419823 4:0.314705 
-1 1:-0.869017 2:-0.91044 3:0.20295 4:0.608412 
-1 1:-0.883218 2:-0.964588 3:0.807618 4:0.685691 
-1 1:-0.860562 2:-0.91669 3:-0.647277 4:0.138903 
-1 1:-0.868489 2:-0.844052 3:0.331573 4:-0.0820109 
-1 1:-0.671484 2:-0.848416 3:0.432447 4:0.474606 
-1 1:-0.904608 2:-0.911452 3:0.601751 4:0.427114 
-1 1:-0.849823 2:-0.835981 3:-0.474506 4:0.600445 
-1 1:-0.860578 2:-0.930093 3:0.536979 4:0.412434 
-1 1:-0.867694 2:-0.844093 3:-0.167418 4:-0.283146 
-1 1:-0.88538 2:-0.854671 3:0.433742 4:0.515902 
-1 1:-0.874396 2:-0.871442 3:0.292307 4:-0.204615 
-1 1:-0.868231 2:-0.889813 3:0.861918 4:0.73654 
-1 1:-0.880438 2:-0.807707 3:-0.191726 4:-0.337932 
-1 1:-0.855917 2:-0.874268 3:0.412566 4:0.28745 
-1 1:-0.855424 2:-0.799845 3:-0.559744 4:-0.172781 
-1 1:-0.86988 2:-0.893556 3:0.668981 4:0.266756 
-1 1:-0.840838 2:-0.905125 3:-0.173888 4:0.0741056 
-1 1:-0.873085 2:-0.901285 3:-0.256336 4:0.0839029 
-1 1:-0.887925 2:-0.834737 3:-0.280235 4:-0.552924 
-1 1:-0.880056 2:-0.803553 3:0.211865 4:-0.338817 
-1 1:-0.845851 2:-0.852076 3:0.842417 4:0.675741 
-1 1:-0.881325 2:-0.908446 3:0.805644 4:0.632676 
-1 1:-0.945747 2:-0.859863 3:0.519861 4:0.382401 
-1 1:-0.183929 2:-0.923497 3:0.419803 4:0.590068 
-1 1:-0.878835 2:-0.930959 3:0.434379 4:0.556495 
-1 1:-0.877467 2:-0.780775 3:-0.391936 4:-0.0535345 
-1 1:-0.789558 2:-0.92527 3:-0.339979 4:0.240966 
-1 1:-0.838943 2:-0.822173 3:-0.371593 4:0.257111 
-1 1:-0.886268 2:-0.861917 3:-0.195969 4:-0.489592 
-1 1:-0.914876 2:-0.858917 3:-0.101322 4:-0.117629 
-1 1:-0.88227 2:-0.617704 3:-0.192405 4:-0.199732 
-1 1:-0.86782 2:-0.898679 3:-0.177587 4:-0.0753267 
-1 1:-0.859697 2:-0.873467 3:0.457469 4:0.536473 
-1 1:-0.860658 2:-0.789037 3:0.615088 4:0.49243 
-1 1:-0.855802 2:-0.935969 3:0.181184 4:0.244475 
-1 1:-0.852749 2:-0.934125 3:0.26081 4:0.375016 
-1 1:-0.940699 2:-0.871185 3:0.672339 4:0.48187 
-1 1:-0.859894 2:-0.886998 3:0.70057 4:0.403919 
-1 1:-0.947784 2:-0.953084 3:0.241303 4:0.614058 
-1 1:-0.821821 2:-0.804008 3:0.571701 4:0.811012 
-1 1:-0.876987 2:-0.809714 3:-0.415536 4:-0.031315 
-1 1:-0.883265 2:-0.786611 3:0.630835 4:0.199365 
-1 1:-0.890824 2:-0.885683 3:0.771755 4:0.741301 
-1 1:-0.493954 2:-0.905074 3:-0.674137 4:-0.621658 
-1 1:-0.877159 2:-0.910376 3:-0.446081 4:0.0705651 
-1 1:-0.883612 2:-0.930187 3:-0.822384 4:0.900592 
-1 1:-0.868269 2:-0.936557 3:0.273542 4:0.241027 
-1 1:-0.878031 2:-0.853655 3:-0.286581 4:0.184317 
-1 1:-0.445821 2:-0.891637 3:0.617973 4:0.483549 
-1 1:-0.826474 2:-0.882208 3:-0.163086 4:0.273409 
-1 1:-0.849615 2:-0.883369 3:0.729698 4:0.882279 
-1 1:-0.867529 2:-0.921945 3:0.469918 4:0.314247 
-1 1:-0.888537 2:-0.820681 3:-0.585863 4:-0.549414 
-1 1:-0.830163 2:-0.790552 3:-0.225979 4:0.531986 
-1 1:-0.31699 2:-0.908036 3:0.686042 4:0.596753 
-1 1:-0.879049 2:-0.82887 3:0.204001 4:-0.315896 
-1 1:-1 2:-0.743952 3:0.262307 4:-0.131028 
-1 1:-0.868278 2:-0.865668 3:0.801185 4:0.699242 
-1 1:-0.880984 2:-0.865859 3:-0.355817 4:-0.283024 
-1 1:-0.62681 2:-0.943487 3:0.355234 4:0.780308 
-1 1:-0.896644 2:-0.81997 3:-0.312828 4:0.0952263 
-1 1:-0.88711 2:-0.884271 3:0.522846 4:0.0991941 
-1 1:-0.925682 2:-0.902886 3:0.332182 4:0.286747 
-1 1:-0.899054 2:-0.929193 3:0.341236 4:0.304328 
-1 1:-0.874021 2:-0.868189 3:-0.382679 4:-0.187309 
-1 1:-0.89457 2:-0.839143 3:0.641547 4:0.67101 
-1 1:-0.862845 2:-0.951214 3:0.546468 4:0.503906 
-1 1:-0.878693 2:-0.679917 3:-0.254349 4:0.518526 
-1 1:-0.881703 2:-0.820974 3:0.284708 4:-0.372482 
-1 1:-0.860037 2:-0.807509 3:0.858113 4:0.548162 
-1 1:-0.869728 2:-0.890251 3:0.229485 4:0.245513 
-0.43530423175914912 1:-0.939384 2:-0.879104 3:-0.530427 4:-0.42098 
-1 1:-0.888066 2:-0.724852 3:-0.38535 4:-0.54743 
-1 1:-0.86268 2:-0.912328 3:0.225122 4:0.37297 
-1 1:-0.866992 2:-0.799719 3:0.437792 4:0.0485287 
-1 1:-0.374516 2:-0.898153 3:-0.209358 4:0.542973 
-1 1:-0.882519 2:-0.938551 3:-0.472343 4:0.557411 
-0.99728157533084494 1:-0.918958 2:-0.956201 3:0.307508 4:0.471524 
-1 1:-0.879717 2:-0.863035 3:-0.212868 4:-0.332988 
-1 1:-0.871658 2:-0.84554 3:-0.360158 4:0.247772 
-1 1:-0.877557 2:-0.887522 3:-0.203459 4:-0.296423 
-1 1:-0.880278 2:-0.929163 3:-0.52956 4:0.133867 
-1 1:-0.888625 2:-0.777828 3:-0.397318 4:-0.593212 
-1 1:-0.871267 2:-0.881788 3:0.176767 4:-0.180503 
-1 1:-0.851823 2:-0.688802 3:0.570563 4:0.795507 
-1 1:-0.272207 2:-0.907632 3:0.307571 4:-0.632768 
-1 1:-0.891554 2:-0.767794 3:0.3225 4:-0.812813 
-1 1:-0.897889 2:-0.628043 3:0.369118 4:-0.681327 
-1 1:-0.884592 2:-0.867065 3:0.557399 4:0.789983 
-1 1:-0.832701 2:-0.775502 3:0.447651 4:0.620071 
-1 1:-0.896165 2:-0.90966 3:0.839046 4:0.439598 
-1 1:-0.878256 2:-0.892749 3:0.35384 4:0.223629 
-1 1:-0.874755 2:-0.779767 3:-0.169858 4:-0.304053 
-1 1:-0.8831 2:-0.875618 3:-0.271561 4:0.182243 
-1 1:-0.877711 2:-0.722192 3:-0.2287 4:-0.302497 
-1 1:-0.869726 2:-0.898396 3:0.68767 4:0.743071 
-1 1:-0.882269 2:-0.863418 3:-0.285154 4:-0.327188 
-1 1:-0.85764 2:-0.875644 3:-0.28426 4:0.36479 
-1 1:-0.854482 2:-0.864504 3:0.412698 4:0.433707 
-1 1:-0.547317 2:-0.933426 3:0.839849 4:0.486662 
-1 1:-0.886945 2:-0.849035 3:0.402175 4:0.393694 
-1 1:-0.405293 2:-0.848518 3:0.450614 4:-0.442101 
-1 1:-0.86501 2:-0.927951 3:0.262425 4:0.265566 
-1 1:-0.878804 2:-0.846896 3:0.750831 4:0.726621 
-1 1:-0.884405 2:-0.838472 3:0.246517 4:-0.427512 
-1 1:-0.86438 2:-0.819977 3:0.509873 4:0.163105 
-1 1:-0.850786 2:-0.885691 3:-0.189529 4:0.25238 
-1 1:-0.478905 2:-0.97575 3:0.780815 4:0.691063 
-1 1:-0.888026 2:-0.873213 3:0.309981 4:0.630508 
-1 1:-0.880339 2:-0.848202 3:0.31311 4:-0.337657 
-1 1:-0.873654 2:-0.918751 3:0.942822 4:0.746825 
-1 1:-0.883527 2:-0.855906 3:0.297954 4:0.48651 
-1 1:-0.877125 2:-0.671173 3:0.30956 4:-0.22363 
-1 1:-0.881001 2:-0.916192 3:-0.653831 4:0.112501 
-1 1:-0.870804 2:-0.907555 3:-0.518593 4:0.648699 
-1 1:-0.495864 2:-0.908979 3:0.320503 4:-0.424124 
-1 1:-0.876586 2:-0.979795 3:0.712938 4:0.784 
-1 1:-0.870581 2:-0.772684 3:0.248222 4:0.584208 
-1 1:-0.861948 2:-0.926297 3:0.664361 4:0.544744 
-1 1:-0.261996 2:-0.866512 3:0.290175 4:0.626938 
-1 1:-0.87369 2:-0.885804 3:0.295294 4:0.459407 
-1 1:-0.888713 2:-0.824138 3:0.327288 4:-0.586681 
-1 1:-0.889819 2:-0.799931 3:0.204335 4:-0.505982 
-1 1:-0.881825 2:-0.788483 3:0.348277 4:-0.355909 
-1 1:-0.900582 2:-0.903928 3:0.818857 4:0.256013 
-1 1:-0.872412 2:-0.921386 3:0.541549 4:0.732755 
-1 1:-0.882464 2:-0.878875 3:-0.252941 4:-0.383195 
-1 1:-0.882124 2:-0.922539 3:0.46666 4:0.314308 
-1 1:-0.847049 2:-0.868175 3:0.789399 4:0.480191 
-1 1:-0.876405 2:-0.85337 3:0.260863 4:-0.278202 
-1 1:-0.877428 2:-0.85003 3:0.637444 4:0.613905 
-1 1:-0.881616 2:-0.717486 3:0.240759 4:-0.367232 
-1 1:-0.865058 2:-0.837907 3:-0.323267 4:-0.169149 
-1 1:-0.867568 2:-0.823681 3:0.470942 4:-0.0474913 
-1 1:-0.882278 2:-0.890146 3:0.318474 4:0.474758 
-1 1:-0.265233 2:-0.913258 3:-0.384501 4:-0.533299 
-1 1:-0.981229 2:-0.801177 3:0.439902 4:0.459162 
-1 1:-0.938257 2:-0.916185 3:-0.288776 4:0.329904 
-1 1:-0.992446 2:-0.555598 3:-0.242196 4:-0.391558 
-1 1:-0.993765 2:-0.852319 3:-0.264677 4:-0.393816 
-1 1:-0.971614 2:-0.850891 3:0.510029 4:0.524386 
-1 1:-0.98506 2:-0.815162 3:0.531106 4:0.489409 
-1 1:-0.994479 2:-0.83872 3:0.707506 4:0.0482846 
-1 1:-0.98811 2:-0.92206 3:0.546332 4:0.558143 
-1 1:-0.988444 2:-0.928058 3:-0.497417 4:0.0720607 
-1 1:-0.96979 2:-0.857697 3:0.36296 4:-0.135606 
-1 1:-0.929816 2:-0.849201 3:0.33223 4:0.188866 
-1 1:-0.998076 2:-0.893355 3:0.253106 4:0.284825 
-1 1:-0.992168 2:-0.786965 3:0.446756 4:0.464808 
-1 1:-0.9031 2:-0.870052 3:-0.360214 4:0.0292392 
-1 1:-0.99013 2:-0.861488 3:-0.29538 4:-0.31556 
